#define NUM_ACTIVITIES 7
#define WINDOW_SIZE 20
#define NUM_FEATURES 12

const char *activity_names[NUM_ACTIVITIES] = {"hook", "jab", "rotating punch", "shoulder rotation", "T-pose", "curl", "rest"};

static float weights[7][12] = {
    {-0.000581898618, -0.0000501932874, 0.000346270229, 0.0000235762429, 0.000116195475, -0.000126714378, 0.000411861821, 0.000242127518, 0.0000312880358, 0.000147189045, 0.000446902522, -0.000272658735},
    {0.000455575378, -0.000397917336, -0.000285127089, 0.0000981458411, 0.000454340875, -0.000152620665, -0.000174295296, 0.0000462979768, -0.000674812902, 0.000350098061, 0.00105706855, -0.000240507250},
    {-0.000111374836, 0.0000692241499, -0.000312638422, 0.000295099818, -0.0000850510436, 0.000363928186, 0.0000889389699, -0.000263886498, -0.000337700585, 0.000500655919, -0.0000158817184, 0.000469529080},
    {0.000342974793, -0.000233893030, 0.00049564803, 0.000158218881, -0.000172590171, 0.000125797921, 0.000131609337, -0.000599654332, 0.000208554475, 0.000511823545, -0.000572158930, 0.000407670712},
    {0.000105771541, -0.000439938613, 0.000966770955, -0.000209723071, -0.000167635115, -0.000201541650, -0.000297168555, -0.000141227947, 0.000748604196, -0.000613407917, -0.000517372215, -0.000592179808},
    {-0.0000148160788, -0.0000838018448, -0.00107805493, -0.000151783828, 0.0000225900127, 0.000200262802, -0.000151712372, -0.0000916273058, 0.000380072093, -0.000262319783, 0.000124858707, 0.000858329072},
    {-0.000196232179, 0.00113651996, -0.000132868777, -0.000213533884, -0.000167850033, -0.000209112217, -0.00000923390472, 0.000807970588, -0.000356005313, -0.000634038871, -0.000523416915, -0.00063018307}
};

static float bias[7] = {0.0000000142821361, -0.000000172142204, -0.000000212678084, 0.00000000684161517, 0.000000159181106, 0.0000000399262380, 0.000000164589193};

typedef struct {
    int16_t x[WINDOW_SIZE];
    int16_t y[WINDOW_SIZE];
    int16_t z[WINDOW_SIZE];
    int index;
} SlidingWindow;

void run_4B25_coursework();